
\data\
ngram 1=13

\1-grams:
-0.6082643	</s>
-99	<s>
-1.098067	eight
-1.070038	five
-1.098067	four
-1.117811	nine
-1.496007	oh
-1.12803	one
-1.183077	seven
-1.194977	six
-1.117811	three
-1.117811	two
-1.353339	zero

\end\
